<?xml version="1.0"?>
<opencv_storage>
<stage5>
  <maxWeakCount>8</maxWeakCount>
  <stageThreshold>-5.4397487640380859e-01</stageThreshold>
  <weakClassifiers>
    <_>
      <internalNodes>
        0 -1 160 1660857903 577781623 -34800096 539651902 1211328289
        -1301839873 509563909 725317503</internalNodes>
      <leafValues>
        -2.8695651888847351e-01 6.2448978424072266e-01</leafValues></_>
    <_>
      <internalNodes>
        0 -1 1339 175197991 -1465225561 -1883243681 -1275092995
        1694238565 -408420531 -1082280367 -889860751</internalNodes>
      <leafValues>
        -3.4722223877906799e-01 5.4793763160705566e-01</leafValues></_>
    <_>
      <internalNodes>
        0 -1 1771 227746313 -2144694193 1074823249 -962977032
        -1672908768 -519897087 1141007019 1246257695</internalNodes>
      <leafValues>
        -5.7162791490554810e-01 3.5002458095550537e-01</leafValues></_>
    <_>
      <internalNodes>
        0 -1 197 2077093807 1425749925 -1544012166 1425120568 2104997483
        187300284 -134521026 2080364415</internalNodes>
      <leafValues>
        -4.0479710698127747e-01 5.5759549140930176e-01</leafValues></_>
    <_>
      <internalNodes>
        0 -1 2065 1162854841 -1088958587 -545362049 2119970748
        1068091216 -16891905 1048410962 -369156129</internalNodes>
      <leafValues>
        -4.0282624959945679e-01 5.6926459074020386e-01</leafValues></_>
    <_>
      <internalNodes>
        0 -1 1599 -350679525 4390931 1094354311 852652549 68353111
        1611237512 -1047697008 -506031446</internalNodes>
      <leafValues>
        -5.1529759168624878e-01 4.7154286503791809e-01</leafValues></_>
    <_>
      <internalNodes>
        0 -1 1923 -812922303 1336934332 803731421 1274806266 -125907880
        -612442164 -407582729 -16845318</internalNodes>
      <leafValues>
        -3.9736923575401306e-01 6.1778050661087036e-01</leafValues></_>
    <_>
      <internalNodes>
        0 -1 383 1140704194 421687150 -17367297 301072249 -1765312938
        461724902 -448403726 -771292565</internalNodes>
      <leafValues>
        -4.1256639361381531e-01 5.6530958414077759e-01</leafValues></_></weakClassifiers></stage5>
</opencv_storage>
