<?xml version="1.0"?>
<opencv_storage>
<stage9>
  <maxWeakCount>8</maxWeakCount>
  <stageThreshold>-8.4521645307540894e-01</stageThreshold>
  <weakClassifiers>
    <_>
      <internalNodes>
        0 -1 1742 -1070902688 108904182 -92864939 5291831 1137395204
        1750884221 -390758522 1083330382</internalNodes>
      <leafValues>
        -3.9779004454612732e-01 5.1738524436950684e-01</leafValues></_>
    <_>
      <internalNodes>
        0 -1 1196 -1351650837 24428463 523182890 438798796 1676869490
        -2063728651 235927359 -80341939</internalNodes>
      <leafValues>
        -3.6374232172966003e-01 4.5256185531616211e-01</leafValues></_>
    <_>
      <internalNodes>
        0 -1 509 -537404289 -615583957 -1162973317 -1747910941
        2137268969 2138603479 -289422211 -7408069</internalNodes>
      <leafValues>
        -2.6383966207504272e-01 6.4210599660873413e-01</leafValues></_>
    <_>
      <internalNodes>
        0 -1 1568 -1924716285 -1003810807 1090913492 -251635689
        -1062879692 -1597959167 1132495716 -1154356612</internalNodes>
      <leafValues>
        -4.2037823796272278e-01 4.3318349123001099e-01</leafValues></_>
    <_>
      <internalNodes>
        0 -1 1912 461089352 951307 -2012462826 912293906 -1969879399
        -2138865528 1117487313 775981751</internalNodes>
      <leafValues>
        -6.4340263605117798e-01 2.9835566878318787e-01</leafValues></_>
    <_>
      <internalNodes>
        0 -1 1759 -246775674 142629443 168468488 -498450033 -402578205
        -1476394878 1480733859 -1954643426</internalNodes>
      <leafValues>
        -4.7959706187248230e-01 3.6184397339820862e-01</leafValues></_>
    <_>
      <internalNodes>
        0 -1 2097 135296244 -1989986684 276939344 1399592594 169054928
        -1803157502 -1291712035 -1422174329</internalNodes>
      <leafValues>
        -4.9875983595848083e-01 3.9088571071624756e-01</leafValues></_>
    <_>
      <internalNodes>
        0 -1 1385 -1014050475 -2138876414 -1039809792 -1793969773 45214
        -2077163006 805523926 -1563399771</internalNodes>
      <leafValues>
        -5.2428579330444336e-01 3.9942502975463867e-01</leafValues></_></weakClassifiers></stage9>
</opencv_storage>
