<?xml version="1.0"?>
<opencv_storage>
<stage11>
  <maxWeakCount>7</maxWeakCount>
  <stageThreshold>-8.9678114652633667e-01</stageThreshold>
  <weakClassifiers>
    <_>
      <internalNodes>
        0 -1 1079 951107032 -34078739 -4417 -39972868 -8519767 -19267649
        -738631682 -1924119296</internalNodes>
      <leafValues>
        -1.7147192358970642e-01 6.2489044666290283e-01</leafValues></_>
    <_>
      <internalNodes>
        0 -1 1782 -98112271 -1615020612 -189257 -676229659 -8406520
        -1636306472 2013238507 1061934314</internalNodes>
      <leafValues>
        -3.1935903429985046e-01 5.6345081329345703e-01</leafValues></_>
    <_>
      <internalNodes>
        0 -1 1913 1328318684 1498520210 -1610366975 -1877589366
        -2146925942 956302976 1728646698 -1067433588</internalNodes>
      <leafValues>
        -5.4599559307098389e-01 3.4294405579566956e-01</leafValues></_>
    <_>
      <internalNodes>
        0 -1 1938 -1343492439 -1468076298 -1112539537 -1320374356
        1444947922 -722182184 1044361066 -2012518406</internalNodes>
      <leafValues>
        -4.3533733487129211e-01 4.4116905331611633e-01</leafValues></_>
    <_>
      <internalNodes>
        0 -1 2264 -1969370761 1164345340 -17371143 -572985473 -596065
        -1074462721 -553767013 -865491141</internalNodes>
      <leafValues>
        -3.5537478327751160e-01 5.8785468339920044e-01</leafValues></_>
    <_>
      <internalNodes>
        0 -1 1499 1480272145 1479193341 1031684093 -248135687
        -1084675966 -159421441 -1526998400 -1205069044</internalNodes>
      <leafValues>
        -4.1424995660781860e-01 4.6645867824554443e-01</leafValues></_>
    <_>
      <internalNodes>
        0 -1 1626 571724993 146813139 290314393 141897849 681699500
        -1577056223 1662649134 721510666</internalNodes>
      <leafValues>
        -4.7472840547561646e-01 4.0185543894767761e-01</leafValues></_></weakClassifiers></stage11>
</opencv_storage>
