<?xml version="1.0"?>
<opencv_storage>
<stage6>
  <maxWeakCount>7</maxWeakCount>
  <stageThreshold>-5.3106522560119629e-01</stageThreshold>
  <weakClassifiers>
    <_>
      <internalNodes>
        0 -1 1614 254600 5522128 348 201867275 -777933812 -2134826740
        822815249 1119488753</internalNodes>
      <leafValues>
        -5.9859156608581543e-01 5.0791555643081665e-01</leafValues></_>
    <_>
      <internalNodes>
        0 -1 185 -579885563 -1236336729 -1359056914 -1024574081
        974466933 -17399844 1970607999 -273678597</internalNodes>
      <leafValues>
        -3.1746932864189148e-01 5.8530580997467041e-01</leafValues></_>
    <_>
      <internalNodes>
        0 -1 1615 233701113 97646079 -135830035 849078783 -706771058
        -429965987 997944608 -119947243</internalNodes>
      <leafValues>
        -3.9085313677787781e-01 5.0111895799636841e-01</leafValues></_>
    <_>
      <internalNodes>
        0 -1 1410 85189378 957387472 453358278 235769940 -1518052449
        -232062933 -100072897 -1783828576</internalNodes>
      <leafValues>
        -5.3284877538681030e-01 3.7898156046867371e-01</leafValues></_>
    <_>
      <internalNodes>
        0 -1 20 49661799 -805507345 -264 -1611151384 796917503
        -269123593 -1082181001 -4028505</internalNodes>
      <leafValues>
        -3.8737553358078003e-01 5.5858647823333740e-01</leafValues></_>
    <_>
      <internalNodes>
        0 -1 1600 10035656 1180424279 1074160011 6947608 1219850011
        -994799344 1259958739 1348240764</internalNodes>
      <leafValues>
        -6.8766772747039795e-01 3.2300168275833130e-01</leafValues></_>
    <_>
      <internalNodes>
        0 -1 2051 320780069 -1589051157 196865 147981151 -872410972
        -861863661 -492674335 562035451</internalNodes>
      <leafValues>
        -4.6799355745315552e-01 4.7029623389244080e-01</leafValues></_></weakClassifiers></stage6>
</opencv_storage>
