<?xml version="1.0"?>
<opencv_storage>
<stage14>
  <maxWeakCount>9</maxWeakCount>
  <stageThreshold>-3.9327701926231384e-01</stageThreshold>
  <weakClassifiers>
    <_>
      <internalNodes>
        0 -1 275 -781197314 1398922743 1005411284 2044942181 -151036963
        1069383606 -604578049 198702330</internalNodes>
      <leafValues>
        -1.7801046371459961e-02 7.3017752170562744e-01</leafValues></_>
    <_>
      <internalNodes>
        0 -1 1935 -824829 -205931308 -2089098804 -620793132 -926382
        -864129291 -614802856 -818692225</internalNodes>
      <leafValues>
        -2.3304300010204315e-01 5.6115162372589111e-01</leafValues></_>
    <_>
      <internalNodes>
        0 -1 1936 -272110356 -549720525 1052753723 -172663106 -35895832
        1474308027 -1649389762 -1736595501</internalNodes>
      <leafValues>
        -3.3464300632476807e-01 4.6211469173431396e-01</leafValues></_>
    <_>
      <internalNodes>
        0 -1 1764 1924010246 1810958336 1077973251 -1744600309 362013642
        -1283423936 1922098027 2102063333</internalNodes>
      <leafValues>
        -4.7635653614997864e-01 3.7465643882751465e-01</leafValues></_>
    <_>
      <internalNodes>
        0 -1 2209 -539247105 431472308 -268501265 -1120424244 670482874
        -1409287688 -848921566 -42730381</internalNodes>
      <leafValues>
        -3.0659016966819763e-01 6.4976507425308228e-01</leafValues></_>
    <_>
      <internalNodes>
        0 -1 1596 1489732771 -133927788 -1356894465 735194297
        -1427244298 -1105805441 -1367450146 -10861494</internalNodes>
      <leafValues>
        -4.0164083242416382e-01 4.7212481498718262e-01</leafValues></_>
    <_>
      <internalNodes>
        0 -1 1540 -1082271923 1942257445 -813764640 -243826911
        -1108556551 108953461 -251777333 1626269431</internalNodes>
      <leafValues>
        -3.6867183446884155e-01 5.2059483528137207e-01</leafValues></_>
    <_>
      <internalNodes>
        0 -1 2076 -1746409405 -735484118 -823183466 1606189023
        -1353812764 -34836514 1206248910 -268603681</internalNodes>
      <leafValues>
        -3.3047953248023987e-01 5.8957564830780029e-01</leafValues></_>
    <_>
      <internalNodes>
        0 -1 1782 -1246984 -550970114 -16966610 -1074688532 1593814538
        -1087082151 1476371694 -1921268486</internalNodes>
      <leafValues>
        -3.8601738214492798e-01 5.3121268749237061e-01</leafValues></_></weakClassifiers></stage14>
</opencv_storage>
