<?xml version="1.0"?>
<opencv_storage>
<stage16>
  <maxWeakCount>10</maxWeakCount>
  <stageThreshold>-6.1834472417831421e-01</stageThreshold>
  <weakClassifiers>
    <_>
      <internalNodes>
        0 -1 1638 -823186218 1084935787 -269025567 1108375041
        -1528835039 -286787004 -1537411611 -662874237</internalNodes>
      <leafValues>
        -1.7491748929023743e-01 5.9128975868225098e-01</leafValues></_>
    <_>
      <internalNodes>
        0 -1 1165 1075021258 528943416 294847495 -570425127 911018
        -1807089232 -928411990 -1876457418</internalNodes>
      <leafValues>
        -4.2370882630348206e-01 3.9944490790367126e-01</leafValues></_>
    <_>
      <internalNodes>
        0 -1 1639 -1903200297 1510031284 -1079069319 -1624363177
        -151218938 -442876700 -1220209730 -1256916302</internalNodes>
      <leafValues>
        -3.5497614741325378e-01 4.6321153640747070e-01</leafValues></_>
    <_>
      <internalNodes>
        0 -1 1947 -1293198593 -436808734 1056902492 1071710060
        -473042534 -1963262084 -168429880 -1946898721</internalNodes>
      <leafValues>
        -3.1440377235412598e-01 5.2606409788131714e-01</leafValues></_>
    <_>
      <internalNodes>
        0 -1 1611 1750286648 -1420685026 -1325190633 -476482978
        -771570014 404783107 -1860987515 -270930175</internalNodes>
      <leafValues>
        -4.2431008815765381e-01 4.5660072565078735e-01</leafValues></_>
    <_>
      <internalNodes>
        0 -1 396 -412119141 65990627 1877933749 -100926494 1333784030
        662699897 1451227121 -606085323</internalNodes>
      <leafValues>
        -3.6086690425872803e-01 5.2206659317016602e-01</leafValues></_>
    <_>
      <internalNodes>
        0 -1 1794 -1359057198 2045765608 -1275366815 1802501821
        1409005418 -2068070437 -1225277825 -1454934026</internalNodes>
      <leafValues>
        -3.9102482795715332e-01 4.8666763305664063e-01</leafValues></_>
    <_>
      <internalNodes>
        0 -1 2065 -1516908364 -729774444 423665683 -972155500
        -1599483384 -2133704637 43123696 -1046080370</internalNodes>
      <leafValues>
        -5.3868883848190308e-01 3.6874368786811829e-01</leafValues></_>
    <_>
      <internalNodes>
        0 -1 1803 -1090570690 1324257150 -268546160 -1243254809
        -143264312 343341030 -708845619 -64751821</internalNodes>
      <leafValues>
        -4.1156631708145142e-01 4.7816294431686401e-01</leafValues></_>
    <_>
      <internalNodes>
        0 -1 1192 240010282 391155980 1377403152 1618610249 -2145595105
        -950419059 747145313 1926282434</internalNodes>
      <leafValues>
        -6.4395517110824585e-01 3.4628966450691223e-01</leafValues></_></weakClassifiers></stage16>
</opencv_storage>
