<?xml version="1.0"?>
<opencv_storage>
<stage13>
  <maxWeakCount>9</maxWeakCount>
  <stageThreshold>-6.0917186737060547e-01</stageThreshold>
  <weakClassifiers>
    <_>
      <internalNodes>
        0 -1 1381 656785646 1013563377 -603443586 -2075089579
        -1993764870 -231555081 -1985249608 -1558594952</internalNodes>
      <leafValues>
        -1.7589576542377472e-01 5.9696459770202637e-01</leafValues></_>
    <_>
      <internalNodes>
        0 -1 1944 -92881271 -221415681 -298549249 1998026191 -1050345816
        613030638 -784728529 -1142966081</internalNodes>
      <leafValues>
        -2.2906692326068878e-01 6.9565469026565552e-01</leafValues></_>
    <_>
      <internalNodes>
        0 -1 1935 -889401645 -743195436 -2089098883 1358635741 -9371694
        -856199435 -607055029 -810340515</internalNodes>
      <leafValues>
        -3.0474483966827393e-01 5.3772968053817749e-01</leafValues></_>
    <_>
      <internalNodes>
        0 -1 2088 -272666741 2119745226 2143260105 2147323613 827717846
        -1996949511 -1100192546 -364150950</internalNodes>
      <leafValues>
        -3.7074068188667297e-01 5.2841144800186157e-01</leafValues></_>
    <_>
      <internalNodes>
        0 -1 315 -320602169 -14303514 -16846923 1501023536 -847839406
        -268584971 -805701709 -1258572219</internalNodes>
      <leafValues>
        -3.2383298873901367e-01 5.5156755447387695e-01</leafValues></_>
    <_>
      <internalNodes>
        0 -1 1419 -761742075 -1783858444 2147163887 214277631
        -1236469710 779058381 -304116722 -1889037845</internalNodes>
      <leafValues>
        -3.6144623160362244e-01 5.2826660871505737e-01</leafValues></_>
    <_>
      <internalNodes>
        0 -1 2106 -515562938 -539884542 -786394474 -1109476794
        1367919509 -1744365568 1242040484 -1996297463</internalNodes>
      <leafValues>
        -4.6526333689689636e-01 5.0152242183685303e-01</leafValues></_>
    <_>
      <internalNodes>
        0 -1 1900 1533906512 281554719 285949955 -1764900861 541188904
        545915520 -1954430968 -556430398</internalNodes>
      <leafValues>
        -4.5367524027824402e-01 4.3831977248191833e-01</leafValues></_>
    <_>
      <internalNodes>
        0 -1 935 285546870 -1018361788 1212173342 324374803 151490971
        186187904 -2107399526 320969093</internalNodes>
      <leafValues>
        -4.9748840928077698e-01 4.1890367865562439e-01</leafValues></_></weakClassifiers></stage13>
</opencv_storage>
