<?xml version="1.0"?>
<opencv_storage>
<stage8>
  <maxWeakCount>10</maxWeakCount>
  <stageThreshold>-5.6113594770431519e-01</stageThreshold>
  <weakClassifiers>
    <_>
      <internalNodes>
        0 -1 965 1869008503 174587518 -1913738489 544133110 1207784819
        1358919551 134170484 97922932</internalNodes>
      <leafValues>
        -4.4414168596267700e-01 5.3244942426681519e-01</leafValues></_>
    <_>
      <internalNodes>
        0 -1 1803 -822116609 2129563230 788417664 -52039922 -142608999
        754218990 -1648632438 -165150846</internalNodes>
      <leafValues>
        -3.1995651125907898e-01 5.1682567596435547e-01</leafValues></_>
    <_>
      <internalNodes>
        0 -1 2049 -1696604317 -1012346539 -1610545854 1074832019
        -1719612926 -2000616445 1375799629 1223943935</internalNodes>
      <leafValues>
        -3.9201030135154724e-01 4.7545427083969116e-01</leafValues></_>
    <_>
      <internalNodes>
        0 -1 1649 1870626651 1051504422 -1091643682 -1294254268
        -2013295161 1852734431 -1493776505 -590895270</internalNodes>
      <leafValues>
        -3.5866746306419373e-01 5.4260158538818359e-01</leafValues></_>
    <_>
      <internalNodes>
        0 -1 1391 -892571969 -891130646 -167776517 457006845 -708397265
        -1098973195 -730504452 -742523309</internalNodes>
      <leafValues>
        -3.5284593701362610e-01 5.6903135776519775e-01</leafValues></_>
    <_>
      <internalNodes>
        0 -1 1916 -1589356446 -1820322749 -1035919118 -1456323819
        822743604 -1803509750 -796372434 -1736441954</internalNodes>
      <leafValues>
        -5.1573580503463745e-01 3.9321708679199219e-01</leafValues></_>
    <_>
      <internalNodes>
        0 -1 2092 -139347721 256819039 -459825 1625548519 -1780760779
        -237096985 -722006691 -2089091925</internalNodes>
      <leafValues>
        -3.6953490972518921e-01 5.3354990482330322e-01</leafValues></_>
    <_>
      <internalNodes>
        0 -1 1800 1144182482 -983007322 1073541093 2044780279 472260431
        -1040744452 -1776999338 -221250321</internalNodes>
      <leafValues>
        -4.1252723336219788e-01 4.7516965866088867e-01</leafValues></_>
    <_>
      <internalNodes>
        0 -1 1795 -1368430857 1319779400 788493976 1039908687 2113894487
        1154807292 -1897418834 -260527222</internalNodes>
      <leafValues>
        -4.3946993350982666e-01 4.9732631444931030e-01</leafValues></_>
    <_>
      <internalNodes>
        0 -1 1380 -1157553876 806932869 901383 -1417113277 -2101198434
        1795164224 -417275397 -1129271514</internalNodes>
      <leafValues>
        -5.8052706718444824e-01 3.8732331991195679e-01</leafValues></_></weakClassifiers></stage8>
</opencv_storage>
