<?xml version="1.0"?>
<opencv_storage>
<stage19>
  <maxWeakCount>8</maxWeakCount>
  <stageThreshold>-4.5646196603775024e-01</stageThreshold>
  <weakClassifiers>
    <_>
      <internalNodes>
        0 -1 1775 88225840 7372846 17610770 773904658 942287080
        404064921 1493213258 1276783616</internalNodes>
      <leafValues>
        -5.2713179588317871e-01 4.7730219364166260e-01</leafValues></_>
    <_>
      <internalNodes>
        0 -1 14 -806228048 1577057908 -1342245316 -549739398 251389285
        1325391285 1072164315 -1345341744</internalNodes>
      <leafValues>
        -3.4096613526344299e-01 4.6664419770240784e-01</leafValues></_>
    <_>
      <internalNodes>
        0 -1 1944 -77246742 1927247614 1857388543 1401373910 -614138322
        -2079704338 -785252626 -1285676290</internalNodes>
      <leafValues>
        -3.0787885189056396e-01 5.3500962257385254e-01</leafValues></_>
    <_>
      <internalNodes>
        0 -1 1660 362240140 436633664 65628 524464413 1895997740
        444629600 180425212 761858068</internalNodes>
      <leafValues>
        -5.5449616909027100e-01 3.0086719989776611e-01</leafValues></_>
    <_>
      <internalNodes>
        0 -1 1935 1242054674 -254639096 1384710220 -795377315 -125794303
        1746149408 -674671878 1129554893</internalNodes>
      <leafValues>
        -5.8208179473876953e-01 2.7345690131187439e-01</leafValues></_>
    <_>
      <internalNodes>
        0 -1 1623 6300736 813696008 1157628062 62587144 -662146620
        1375741994 -740620228 180019545</internalNodes>
      <leafValues>
        -7.3121786117553711e-01 2.6519417762756348e-01</leafValues></_>
    <_>
      <internalNodes>
        0 -1 1770 2022506542 -1421197111 352469189 336908557 1087160346
        -114786304 1309348488 -306146712</internalNodes>
      <leafValues>
        -5.2105826139450073e-01 3.3199861645698547e-01</leafValues></_>
    <_>
      <internalNodes>
        0 -1 541 -576436563 -1082232965 -16851345 -1204768897 1844385920
        -1073971217 -553844994 762914479</internalNodes>
      <leafValues>
        -4.0210264921188354e-01 4.5344465970993042e-01</leafValues></_></weakClassifiers></stage19>
</opencv_storage>
