<?xml version="1.0"?>
<opencv_storage>
<stage7>
  <maxWeakCount>8</maxWeakCount>
  <stageThreshold>-4.1209366917610168e-01</stageThreshold>
  <weakClassifiers>
    <_>
      <internalNodes>
        0 -1 226 -226835949 -353436033 -222632078 -2046099926 1685474101
        1985768831 1970798451 1735393123</internalNodes>
      <leafValues>
        -2.8864058852195740e-01 5.9778302907943726e-01</leafValues></_>
    <_>
      <internalNodes>
        0 -1 2113 -445906965 -1968374209 -608196692 -1971601554
        1610086337 1161822061 -1879089775 -738722825</internalNodes>
      <leafValues>
        -3.3606901764869690e-01 5.7399135828018188e-01</leafValues></_>
    <_>
      <internalNodes>
        0 -1 1774 2067722003 -923409113 -1350586380 -68681990
        -2004980476 -1896087729 -168005387 -76045508</internalNodes>
      <leafValues>
        -3.7938341498374939e-01 5.2418565750122070e-01</leafValues></_>
    <_>
      <internalNodes>
        0 -1 2313 1604302637 -960413620 -1056616448 -736622714
        -1054711788 688258 1627425968 -1232605177</internalNodes>
      <leafValues>
        -4.4089764356613159e-01 4.7137808799743652e-01</leafValues></_>
    <_>
      <internalNodes>
        0 -1 1786 1751090925 1892348785 67179531 -1870429339 -917322982
        -2145255248 184844554 1875440003</internalNodes>
      <leafValues>
        -4.9707883596420288e-01 4.4168689846992493e-01</leafValues></_>
    <_>
      <internalNodes>
        0 -1 1169 -144707285 -1732294648 1929367974 1374158323
        -579428957 93125669 -455184539 -2020491272</internalNodes>
      <leafValues>
        -3.6806032061576843e-01 6.0795742273330688e-01</leafValues></_>
    <_>
      <internalNodes>
        0 -1 354 -1008015643 -2026852353 670236664 -1883998861
        -1229991982 1194336252 -1189578975 -206061723</internalNodes>
      <leafValues>
        -3.9053541421890259e-01 5.7437747716903687e-01</leafValues></_>
    <_>
      <internalNodes>
        0 -1 2236 -289424453 -922796135 -1610731840 2076178322
        -671648185 670399345 -159951536 -1485081219</internalNodes>
      <leafValues>
        -4.1148149967193604e-01 5.4727506637573242e-01</leafValues></_></weakClassifiers></stage7>
</opencv_storage>
