<?xml version="1.0"?>
<opencv_storage>
<stage4>
  <maxWeakCount>8</maxWeakCount>
  <stageThreshold>-6.4689451456069946e-01</stageThreshold>
  <weakClassifiers>
    <_>
      <internalNodes>
        0 -1 20 -471414797 -840176160 -537935875 -1074293024 1199568127
        -16941193 -964720909 -807151772</internalNodes>
      <leafValues>
        -3.7578288465738297e-02 7.5534439086914063e-01</leafValues></_>
    <_>
      <internalNodes>
        0 -1 1939 -84757645 1553627126 -4650918 -775820122 -1220834822
        771696511 1455391113 370668567</internalNodes>
      <leafValues>
        -3.4461459517478943e-01 5.0230187177658081e-01</leafValues></_>
    <_>
      <internalNodes>
        0 -1 1782 -232075152 453939243 -1026424813 1292910888 -385770984
        587989256 -2117533462 1561018826</internalNodes>
      <leafValues>
        -5.4914385080337524e-01 3.6438488960266113e-01</leafValues></_>
    <_>
      <internalNodes>
        0 -1 665 -1857675088 357900421 163988 1888174401 -2130407029
        139069440 -2104942469 193221338</internalNodes>
      <leafValues>
        -5.8241516351699829e-01 3.6149090528488159e-01</leafValues></_>
    <_>
      <internalNodes>
        0 -1 2088 -569743054 -37715958 -1073690999 938246144 -2004221808
        -2013224879 470500506 -741609846</internalNodes>
      <leafValues>
        -4.6967118978500366e-01 4.4413048028945923e-01</leafValues></_>
    <_>
      <internalNodes>
        0 -1 1434 -1560070998 -1577037548 537986368 -2062475837
        -2004721654 -1610514176 402786720 -2078120231</internalNodes>
      <leafValues>
        -6.3293391466140747e-01 3.4190407395362854e-01</leafValues></_>
    <_>
      <internalNodes>
        0 -1 1953 -604074369 -1647775958 -1090584867 -1294741582
        -801118990 -228880634 1337962463 -1687708246</internalNodes>
      <leafValues>
        -3.4526586532592773e-01 6.6075307130813599e-01</leafValues></_>
    <_>
      <internalNodes>
        0 -1 1414 -1548813296 -689177118 1608548699 397631083
        -1984040369 -931332360 -1720231111 -302025394</internalNodes>
      <leafValues>
        -3.9693841338157654e-01 5.7305085659027100e-01</leafValues></_></weakClassifiers></stage4>
</opencv_storage>
