<?xml version="1.0"?>
<opencv_storage>
<stage17>
  <maxWeakCount>10</maxWeakCount>
  <stageThreshold>-5.2832251787185669e-01</stageThreshold>
  <weakClassifiers>
    <_>
      <internalNodes>
        0 -1 21 783705905 -76583174 -1194330384 -146344202 -2021798051
        -17083395 754671582 572573460</internalNodes>
      <leafValues>
        -1.6171617805957794e-01 5.8458960056304932e-01</leafValues></_>
    <_>
      <internalNodes>
        0 -1 1939 -663604729 1476792734 142658114 1084293506 -527204245
        -1476179925 1153403185 640626711</internalNodes>
      <leafValues>
        -4.5316904783248901e-01 3.6132121086120605e-01</leafValues></_>
    <_>
      <internalNodes>
        0 -1 1762 1136934963 -1543405280 270337092 1296105667 1350853636
        -1140809712 -1835001679 -310318390</internalNodes>
      <leafValues>
        -4.3990358710289001e-01 3.6997210979461670e-01</leafValues></_>
    <_>
      <internalNodes>
        0 -1 48 -902825049 -1083703305 -1074860184 -592591430 -941168746
        2147416046 -411475992 837412662</internalNodes>
      <leafValues>
        -3.5540673136711121e-01 4.6492871642112732e-01</leafValues></_>
    <_>
      <internalNodes>
        0 -1 1580 -286004571 -1182908629 -92311556 1665089079 -437080331
        -830472210 788266975 -100209949</internalNodes>
      <leafValues>
        -3.4028041362762451e-01 5.2061462402343750e-01</leafValues></_>
    <_>
      <internalNodes>
        0 -1 1423 -621634951 -1142589593 -101636111 -83861509
        -1090621611 -86196390 -356878866 -1723073135</internalNodes>
      <leafValues>
        -3.2163590192794800e-01 5.6447571516036987e-01</leafValues></_>
    <_>
      <internalNodes>
        0 -1 189 1363746167 68476752 21561683 995229718 72092 1761641089
        9783434 1893704175</internalNodes>
      <leafValues>
        -4.3027353286743164e-01 4.2959514260292053e-01</leafValues></_>
    <_>
      <internalNodes>
        0 -1 1953 -1862596936 -498581245 -2143154129 -1001297648
        -1054179021 -1307376768 -1056929214 1384523394</internalNodes>
      <leafValues>
        -5.4121655225753784e-01 3.6348339915275574e-01</leafValues></_>
    <_>
      <internalNodes>
        0 -1 1264 -370931389 -97861636 -49547 1047455272 -188844861
        771158014 -33611782 -168020106</internalNodes>
      <leafValues>
        -4.0974822640419006e-01 5.0821715593338013e-01</leafValues></_>
    <_>
      <internalNodes>
        0 -1 1385 -613912481 -63230004 988806100 -675979799 -818941221
        1424152818 -96514813 -497644072</internalNodes>
      <leafValues>
        -3.3175569772720337e-01 5.8838284015655518e-01</leafValues></_></weakClassifiers></stage17>
</opencv_storage>
