<?xml version="1.0"?>
<opencv_storage>
<stage3>
  <maxWeakCount>8</maxWeakCount>
  <stageThreshold>-5.0232660770416260e-01</stageThreshold>
  <weakClassifiers>
    <_>
      <internalNodes>
        0 -1 54 149579435 729544483 1744568303 -543948819 1433269451
        -826901024 1953552119 1142420549</internalNodes>
      <leafValues>
        -1.8518517911434174e-01 6.4444446563720703e-01</leafValues></_>
    <_>
      <internalNodes>
        0 -1 1928 -336683301 979779348 -806355586 -1784283354 -760145775
        41909757 -1099107612 -851580916</internalNodes>
      <leafValues>
        -3.9691412448883057e-01 4.8684197664260864e-01</leafValues></_>
    <_>
      <internalNodes>
        0 -1 2097 599700598 -488507934 -193016303 1596878190 -1468561488
        -1371611306 -1528361319 -71576433</internalNodes>
      <leafValues>
        -3.8711941242218018e-01 5.0858730077743530e-01</leafValues></_>
    <_>
      <internalNodes>
        0 -1 1785 -1722711344 -1441480613 -1925439463 -723402423
        1111720322 -1459552245 681509715 -220209256</internalNodes>
      <leafValues>
        -4.4112250208854675e-01 4.8910075426101685e-01</leafValues></_>
    <_>
      <internalNodes>
        0 -1 2014 -1135906795 -917504195 1056833245 729546737 -363673858
        -1627390145 2054682238 -401324261</internalNodes>
      <leafValues>
        -4.3953421711921692e-01 5.1526182889938354e-01</leafValues></_>
    <_>
      <internalNodes>
        0 -1 1585 -1848129143 1208471597 -536133506 939909253 1073971339
        -2013243247 134812307 -535003016</internalNodes>
      <leafValues>
        -4.6928519010543823e-01 4.8668193817138672e-01</leafValues></_>
    <_>
      <internalNodes>
        0 -1 1589 -251135547 900165707 -16794689 1428679595 -1352741520
        -907737352 -1679833873 -573876643</internalNodes>
      <leafValues>
        -3.3906388282775879e-01 6.9057077169418335e-01</leafValues></_>
    <_>
      <internalNodes>
        0 -1 1596 539692666 -1434370047 -1877933967 806993970 167805190
        -1945958263 -2012820981 -94453698</internalNodes>
      <leafValues>
        -4.9966165423393250e-01 4.5110952854156494e-01</leafValues></_></weakClassifiers></stage3>
</opencv_storage>
