<?xml version="1.0"?>
<opencv_storage>
<stage15>
  <maxWeakCount>8</maxWeakCount>
  <stageThreshold>-4.0692478418350220e-01</stageThreshold>
  <weakClassifiers>
    <_>
      <internalNodes>
        0 -1 1923 -1969436670 61800326 803665876 1123745770 -97006512
        -738336956 -944451932 1978430834</internalNodes>
      <leafValues>
        -3.1884059309959412e-01 5.2813851833343506e-01</leafValues></_>
    <_>
      <internalNodes>
        0 -1 1803 -822360321 -90530 267290065 -43647153 -1216874548
        620132326 362012107 2129133450</internalNodes>
      <leafValues>
        -2.6133170723915100e-01 5.5587840080261230e-01</leafValues></_>
    <_>
      <internalNodes>
        0 -1 1615 498040556 -447613442 402057165 -392451713 -706898290
        1951907167 1501253612 -665459777</internalNodes>
      <leafValues>
        -3.8366460800170898e-01 4.1865289211273193e-01</leafValues></_>
    <_>
      <internalNodes>
        0 -1 1911 -119014525 269879810 542037 172957696 139051544
        -1203044352 453059016 -1581137414</internalNodes>
      <leafValues>
        -3.7457996606826782e-01 4.6709215641021729e-01</leafValues></_>
    <_>
      <internalNodes>
        0 -1 1928 -34627657 -1158660330 -806355353 -723157186 -826681671
        -1384677889 -419506651 -901404612</internalNodes>
      <leafValues>
        -3.4254238009452820e-01 5.2035748958587646e-01</leafValues></_>
    <_>
      <internalNodes>
        0 -1 1200 -1309689607 -1309774219 -84155301 -717915621 678377338
        717258108 1193273279 -1631661793</internalNodes>
      <leafValues>
        -2.8330647945404053e-01 6.8524587154388428e-01</leafValues></_>
    <_>
      <internalNodes>
        0 -1 1924 365376406 367575041 285245699 1544339652 1309223562
        -2113912806 -796721013 -293445188</internalNodes>
      <leafValues>
        -4.5346099138259888e-01 4.0280267596244812e-01</leafValues></_>
    <_>
      <internalNodes>
        0 -1 1791 -796686224 -251164397 643198 -750188352 -2142731648
        956400000 281122963 -2144488737</internalNodes>
      <leafValues>
        -4.5570471882820129e-01 4.2870369553565979e-01</leafValues></_></weakClassifiers></stage15>
</opencv_storage>
