<?xml version="1.0"?>
<opencv_storage>
<stage10>
  <maxWeakCount>9</maxWeakCount>
  <stageThreshold>-2.0929731428623199e-01</stageThreshold>
  <weakClassifiers>
    <_>
      <internalNodes>
        0 -1 1844 878321745 1055014297 -8521861 -537346309 1952357631
        -142639620 -487129128 -1272423896</internalNodes>
      <leafValues>
        -1.8195050954818726e-01 6.5139263868331909e-01</leafValues></_>
    <_>
      <internalNodes>
        0 -1 2327 -1516749262 -1966934774 17928977 -1143963496
        -524043784 -810553285 705194836 -590013579</internalNodes>
      <leafValues>
        -4.0151110291481018e-01 4.8322978615760803e-01</leafValues></_>
    <_>
      <internalNodes>
        0 -1 107 -1358962703 -1889243156 788463078 -1346443266
        -992706627 2146762615 679401236 -809767308</internalNodes>
      <leafValues>
        -3.9470556378364563e-01 4.8518085479736328e-01</leafValues></_>
    <_>
      <internalNodes>
        0 -1 1626 -1126301005 1626144897 1493610589 247874445 1931667537
        815923283 -884308970 1815473190</internalNodes>
      <leafValues>
        -5.4884928464889526e-01 3.5351511836051941e-01</leafValues></_>
    <_>
      <internalNodes>
        0 -1 2282 -868329121 342557021 -1052716641 439486846 -659966405
        -469654141 -1072895934 -386369274</internalNodes>
      <leafValues>
        -4.5573753118515015e-01 4.6305054426193237e-01</leafValues></_>
    <_>
      <internalNodes>
        0 -1 2193 402890577 417404913 1073709040 -92653611 -720077199
        -806355019 -1108049964 -1103298588</internalNodes>
      <leafValues>
        -4.2750084400177002e-01 5.1923668384552002e-01</leafValues></_>
    <_>
      <internalNodes>
        0 -1 2128 1034583541 1944924025 1056948095 -276881547
        -1082212677 -675811332 -1073881361 -386583411</internalNodes>
      <leafValues>
        -3.8963702321052551e-01 5.9650224447250366e-01</leafValues></_>
    <_>
      <internalNodes>
        0 -1 1585 -1751577366 247009347 -1055812932 -1171123965
        -1333656512 139536896 1200556083 -435133663</internalNodes>
      <leafValues>
        -5.4813086986541748e-01 4.3005558848381042e-01</leafValues></_>
    <_>
      <internalNodes>
        0 -1 1241 -1376236773 -1645543829 -285212873 -2040024412
        -4374705 -1721106737 -1077971075 -22024217</internalNodes>
      <leafValues>
        -3.9565664529800415e-01 6.4024645090103149e-01</leafValues></_></weakClassifiers></stage10>
</opencv_storage>
