<?xml version="1.0"?>
<opencv_storage>
<stage17>
  <maxWeakCount>68</maxWeakCount>
  <stageThreshold>-6.1043280363082886e-01</stageThreshold>
  <weakClassifiers>
    <_>
      <internalNodes>
        0 -1 44757 3.5820720950141549e-04</internalNodes>
      <leafValues>
        2.1650718152523041e-01 5.2334630489349365e-01</leafValues></_>
    <_>
      <internalNodes>
        0 -1 44757 -1.5601641498506069e-03</internalNodes>
      <leafValues>
        4.3397343158721924e-01 -6.0630671679973602e-02</leafValues></_>
    <_>
      <internalNodes>
        0 -1 32163 7.1831321110948920e-04</internalNodes>
      <leafValues>
        -1.0415329039096832e-01 2.5585684180259705e-01</leafValues></_>
    <_>
      <internalNodes>
        0 -1 32163 -1.0903731454163790e-03</internalNodes>
      <leafValues>
        2.8018489480018616e-01 -1.0882335156202316e-01</leafValues></_>
    <_>
      <internalNodes>
        0 -1 11437 -4.9918401986360550e-02</internalNodes>
      <leafValues>
        2.5693994760513306e-01 -1.1173542588949203e-01</leafValues></_>
    <_>
      <internalNodes>
        0 -1 7353 1.7482027411460876e-02</internalNodes>
      <leafValues>
        -1.2125916779041290e-01 2.6827043294906616e-01</leafValues></_>
    <_>
      <internalNodes>
        0 -1 16254 -3.3295676112174988e-01</internalNodes>
      <leafValues>
        4.0311145782470703e-01 -8.6879134178161621e-02</leafValues></_>
    <_>
      <internalNodes>
        0 -1 46390 1.7741229385137558e-03</internalNodes>
      <leafValues>
        -5.7002607733011246e-02 3.7613663077354431e-01</leafValues></_>
    <_>
      <internalNodes>
        0 -1 21730 2.4237725883722305e-03</internalNodes>
      <leafValues>
        -9.0472340583801270e-02 2.5450798869132996e-01</leafValues></_>
    <_>
      <internalNodes>
        0 -1 26533 1.2512387474998832e-03</internalNodes>
      <leafValues>
        -9.0904504060745239e-02 2.9930925369262695e-01</leafValues></_>
    <_>
      <internalNodes>
        0 -1 37708 1.7061871476471424e-03</internalNodes>
      <leafValues>
        -5.1384709775447845e-02 3.6872687935829163e-01</leafValues></_>
    <_>
      <internalNodes>
        0 -1 37712 1.9631741452030838e-04</internalNodes>
      <leafValues>
        -1.2413082271814346e-01 1.7348992824554443e-01</leafValues></_>
    <_>
      <internalNodes>
        0 -1 37893 -1.9380477897357196e-04</internalNodes>
      <leafValues>
        1.9259327650070190e-01 -1.3535138964653015e-01</leafValues></_>
    <_>
      <internalNodes>
        0 -1 3535 -2.8808236122131348e-01</internalNodes>
      <leafValues>
        3.4011298418045044e-01 -5.7861048728227615e-02</leafValues></_>
    <_>
      <internalNodes>
        0 -1 38309 5.2616879343986511e-02</internalNodes>
      <leafValues>
        -8.9652210474014282e-02 3.0763110518455505e-01</leafValues></_>
    <_>
      <internalNodes>
        0 -1 48774 -1.3477605534717441e-03</internalNodes>
      <leafValues>
        3.0330738425254822e-01 -5.8190636336803436e-02</leafValues></_>
    <_>
      <internalNodes>
        0 -1 45313 7.5252098031342030e-04</internalNodes>
      <leafValues>
        -1.1614271998405457e-01 1.6837067902088165e-01</leafValues></_>
    <_>
      <internalNodes>
        0 -1 26987 -1.4979809522628784e-02</internalNodes>
      <leafValues>
        -6.2360078096389771e-01 2.8468079864978790e-02</leafValues></_>
    <_>
      <internalNodes>
        0 -1 26533 -1.3012806884944439e-03</internalNodes>
      <leafValues>
        2.6505321264266968e-01 -6.6555328667163849e-02</leafValues></_>
    <_>
      <internalNodes>
        0 -1 22742 -6.3776140450499952e-05</internalNodes>
      <leafValues>
        1.4895768463611603e-01 -1.2555956840515137e-01</leafValues></_>
    <_>
      <internalNodes>
        0 -1 33901 5.6135951308533549e-04</internalNodes>
      <leafValues>
        -1.1593698710203171e-01 1.6443035006523132e-01</leafValues></_>
    <_>
      <internalNodes>
        0 -1 34062 -5.5035032331943512e-02</internalNodes>
      <leafValues>
        -4.8872551321983337e-01 4.7035485506057739e-02</leafValues></_>
    <_>
      <internalNodes>
        0 -1 850 3.8550861179828644e-02</internalNodes>
      <leafValues>
        -4.5842453837394714e-02 4.3225270509719849e-01</leafValues></_>
    <_>
      <internalNodes>
        0 -1 43564 -1.9481733441352844e-02</internalNodes>
      <leafValues>
        2.6604184508323669e-01 -7.3893681168556213e-02</leafValues></_>
    <_>
      <internalNodes>
        0 -1 45677 7.2831213474273682e-03</internalNodes>
      <leafValues>
        -7.3948509991168976e-02 2.6406401395797729e-01</leafValues></_>
    <_>
      <internalNodes>
        0 -1 48117 -2.7677821926772594e-03</internalNodes>
      <leafValues>
        2.5990375876426697e-01 -6.4960554242134094e-02</leafValues></_>
    <_>
      <internalNodes>
        0 -1 41513 7.7829668298363686e-03</internalNodes>
      <leafValues>
        -9.5068000257015228e-02 1.8514752388000488e-01</leafValues></_>
    <_>
      <internalNodes>
        0 -1 2453 3.4999513626098633e-01</internalNodes>
      <leafValues>
        -3.2190341502428055e-02 5.8527070283889771e-01</leafValues></_>
    <_>
      <internalNodes>
        0 -1 19005 1.4408394694328308e-02</internalNodes>
      <leafValues>
        7.8318275511264801e-02 -2.5516417622566223e-01</leafValues></_>
    <_>
      <internalNodes>
        0 -1 28290 3.6757118068635464e-03</internalNodes>
      <leafValues>
        -7.3725067079067230e-02 2.6996469497680664e-01</leafValues></_>
    <_>
      <internalNodes>
        0 -1 34768 -1.4972130302339792e-03</internalNodes>
      <leafValues>
        3.1714573502540588e-01 -6.3921034336090088e-02</leafValues></_>
    <_>
      <internalNodes>
        0 -1 37517 8.5806983406655490e-05</internalNodes>
      <leafValues>
        -1.2391763180494308e-01 1.4686885476112366e-01</leafValues></_>
    <_>
      <internalNodes>
        0 -1 38222 -5.0727953203022480e-03</internalNodes>
      <leafValues>
        -5.1929807662963867e-01 4.2987905442714691e-02</leafValues></_>
    <_>
      <internalNodes>
        0 -1 24166 -1.5051979571580887e-02</internalNodes>
      <leafValues>
        1.7979249358177185e-01 -1.1973363906145096e-01</leafValues></_>
    <_>
      <internalNodes>
        0 -1 10838 -1.1876353994011879e-02</internalNodes>
      <leafValues>
        2.4795734882354736e-01 -6.9493472576141357e-02</leafValues></_>
    <_>
      <internalNodes>
        0 -1 33898 -2.6560728656477295e-05</internalNodes>
      <leafValues>
        1.5884703397750854e-01 -1.0935527086257935e-01</leafValues></_>
    <_>
      <internalNodes>
        0 -1 22885 -7.2483412921428680e-02</internalNodes>
      <leafValues>
        -6.6537988185882568e-01 2.7058748528361320e-02</leafValues></_>
    <_>
      <internalNodes>
        0 -1 14129 7.3052689433097839e-02</internalNodes>
      <leafValues>
        3.5692885518074036e-02 -4.3323546648025513e-01</leafValues></_>
    <_>
      <internalNodes>
        0 -1 40898 3.6029296461492777e-03</internalNodes>
      <leafValues>
        -1.0711197555065155e-01 1.7026329040527344e-01</leafValues></_>
    <_>
      <internalNodes>
        0 -1 43442 -9.5963617786765099e-04</internalNodes>
      <leafValues>
        1.8130005896091461e-01 -1.2475585937500000e-01</leafValues></_>
    <_>
      <internalNodes>
        0 -1 49703 8.1604148726910353e-04</internalNodes>
      <leafValues>
        -8.4406949579715729e-02 2.0243290066719055e-01</leafValues></_>
    <_>
      <internalNodes>
        0 -1 545 -6.0141438245773315e-01</internalNodes>
      <leafValues>
        6.8555206060409546e-01 -2.6790970936417580e-02</leafValues></_>
    <_>
      <internalNodes>
        0 -1 43560 8.3700697869062424e-03</internalNodes>
      <leafValues>
        -8.6364097893238068e-02 2.0029655098915100e-01</leafValues></_>
    <_>
      <internalNodes>
        0 -1 48245 4.5247696340084076e-02</internalNodes>
      <leafValues>
        -2.2253327071666718e-02 8.1024849414825439e-01</leafValues></_>
    <_>
      <internalNodes>
        0 -1 50522 7.4973399750888348e-03</internalNodes>
      <leafValues>
        -6.1859738081693649e-02 2.7501326799392700e-01</leafValues></_>
    <_>
      <internalNodes>
        0 -1 34388 -7.0424005389213562e-03</internalNodes>
      <leafValues>
        -5.6726819276809692e-01 3.5539329051971436e-02</leafValues></_>
    <_>
      <internalNodes>
        0 -1 30988 -1.8955513369292021e-03</internalNodes>
      <leafValues>
        1.6601057350635529e-01 -1.2445662170648575e-01</leafValues></_>
    <_>
      <internalNodes>
        0 -1 35092 9.5846466138027608e-05</internalNodes>
      <leafValues>
        -1.3302500545978546e-01 1.3192178308963776e-01</leafValues></_>
    <_>
      <internalNodes>
        0 -1 45322 1.1512404307723045e-03</internalNodes>
      <leafValues>
        -1.1208824813365936e-01 1.6547620296478271e-01</leafValues></_>
    <_>
      <internalNodes>
        0 -1 45664 -1.4763984363526106e-03</internalNodes>
      <leafValues>
        2.0807158946990967e-01 -1.0892632603645325e-01</leafValues></_>
    <_>
      <internalNodes>
        0 -1 8586 5.8725494891405106e-03</internalNodes>
      <leafValues>
        -9.6512630581855774e-02 1.8618275225162506e-01</leafValues></_>
    <_>
      <internalNodes>
        0 -1 17269 6.1169659602455795e-05</internalNodes>
      <leafValues>
        -1.2334321439266205e-01 1.4009167253971100e-01</leafValues></_>
    <_>
      <internalNodes>
        0 -1 11186 -5.4970145225524902e-02</internalNodes>
      <leafValues>
        1.6838164627552032e-01 -1.2000286579132080e-01</leafValues></_>
    <_>
      <internalNodes>
        0 -1 35721 3.9552055299282074e-02</internalNodes>
      <leafValues>
        -9.5349796116352081e-02 2.8988975286483765e-01</leafValues></_>
    <_>
      <internalNodes>
        0 -1 33302 -1.3136920519173145e-02</internalNodes>
      <leafValues>
        1.5752942860126495e-01 -1.1637816578149796e-01</leafValues></_>
    <_>
      <internalNodes>
        0 -1 44345 -2.8220560401678085e-02</internalNodes>
      <leafValues>
        2.1183222532272339e-01 -8.4502391517162323e-02</leafValues></_>
    <_>
      <internalNodes>
        0 -1 38887 5.1722362637519836e-02</internalNodes>
      <leafValues>
        -1.0543495416641235e-01 1.7955283820629120e-01</leafValues></_>
    <_>
      <internalNodes>
        0 -1 35101 -2.0863711833953857e-03</internalNodes>
      <leafValues>
        2.2035254538059235e-01 -8.2307837903499603e-02</leafValues></_>
    <_>
      <internalNodes>
        0 -1 16809 1.3606464490294456e-02</internalNodes>
      <leafValues>
        -8.0713577568531036e-02 2.1048311889171600e-01</leafValues></_>
    <_>
      <internalNodes>
        0 -1 4351 -5.0070356577634811e-02</internalNodes>
      <leafValues>
        1.9253149628639221e-01 -9.4925440847873688e-02</leafValues></_>
    <_>
      <internalNodes>
        0 -1 19237 -7.5799948535859585e-04</internalNodes>
      <leafValues>
        1.7634133994579315e-01 -9.8513975739479065e-02</leafValues></_>
    <_>
      <internalNodes>
        0 -1 5042 -9.5392926596105099e-05</internalNodes>
      <leafValues>
        -1.4211717247962952e-01 1.4023977518081665e-01</leafValues></_>
    <_>
      <internalNodes>
        0 -1 34930 1.2117220088839531e-02</internalNodes>
      <leafValues>
        -4.5500889420509338e-02 3.7635958194732666e-01</leafValues></_>
    <_>
      <internalNodes>
        0 -1 19666 2.0715389400720596e-03</internalNodes>
      <leafValues>
        -4.5039467513561249e-02 3.2994627952575684e-01</leafValues></_>
    <_>
      <internalNodes>
        0 -1 46715 -2.6717670261859894e-03</internalNodes>
      <leafValues>
        3.7829199433326721e-01 -4.3751530349254608e-02</leafValues></_>
    <_>
      <internalNodes>
        0 -1 13098 7.4854224920272827e-02</internalNodes>
      <leafValues>
        3.4103114157915115e-02 -5.3748917579650879e-01</leafValues></_>
    <_>
      <internalNodes>
        0 -1 38203 -1.3797465362586081e-04</internalNodes>
      <leafValues>
        1.4611671864986420e-01 -1.1448873579502106e-01</leafValues></_>
    <_>
      <internalNodes>
        0 -1 47132 -6.2347454950213432e-03</internalNodes>
      <leafValues>
        2.6001626253128052e-01 -6.6569447517395020e-02</leafValues></_></weakClassifiers></stage17>
</opencv_storage>
