<?xml version="1.0"?>
<opencv_storage>
<stage23>
  <maxWeakCount>98</maxWeakCount>
  <stageThreshold>-5.5753695964813232e-01</stageThreshold>
  <weakClassifiers>
    <_>
      <internalNodes>
        0 -1 23768 -4.5017346739768982e-02</internalNodes>
      <leafValues>
        5.2707183361053467e-01 2.3565459251403809e-01</leafValues></_>
    <_>
      <internalNodes>
        0 -1 21613 8.9655146002769470e-03</internalNodes>
      <leafValues>
        -6.6473156213760376e-02 2.8900846838951111e-01</leafValues></_>
    <_>
      <internalNodes>
        0 -1 49822 -1.1043587699532509e-02</internalNodes>
      <leafValues>
        2.7973985671997070e-01 -1.1338172107934952e-01</leafValues></_>
    <_>
      <internalNodes>
        0 -1 13 2.3273983970284462e-03</internalNodes>
      <leafValues>
        1.2186001986265182e-01 -1.8497300148010254e-01</leafValues></_>
    <_>
      <internalNodes>
        0 -1 32109 8.3853537216782570e-03</internalNodes>
      <leafValues>
        -6.8143792450428009e-02 3.0751851201057434e-01</leafValues></_>
    <_>
      <internalNodes>
        0 -1 21625 -1.1244330555200577e-02</internalNodes>
      <leafValues>
        2.5179043412208557e-01 -8.9866027235984802e-02</leafValues></_>
    <_>
      <internalNodes>
        0 -1 49812 4.6451590023934841e-03</internalNodes>
      <leafValues>
        -8.1052698194980621e-02 2.0545174181461334e-01</leafValues></_>
    <_>
      <internalNodes>
        0 -1 40185 -6.1819341499358416e-04</internalNodes>
      <leafValues>
        1.6554640233516693e-01 -1.1209299415349960e-01</leafValues></_>
    <_>
      <internalNodes>
        0 -1 1756 -3.1666746363043785e-03</internalNodes>
      <leafValues>
        -2.0482043921947479e-01 9.0644292533397675e-02</leafValues></_>
    <_>
      <internalNodes>
        0 -1 1181 -5.7136285305023193e-01</internalNodes>
      <leafValues>
        5.0971257686614990e-01 -3.4029543399810791e-02</leafValues></_>
    <_>
      <internalNodes>
        0 -1 9803 -1.5005273744463921e-02</internalNodes>
      <leafValues>
        3.1193596124649048e-01 -5.0508692860603333e-02</leafValues></_>
    <_>
      <internalNodes>
        0 -1 32213 1.9375771284103394e-02</internalNodes>
      <leafValues>
        -4.2805705219507217e-02 4.2927855253219604e-01</leafValues></_>
    <_>
      <internalNodes>
        0 -1 19000 -2.5861077010631561e-03</internalNodes>
      <leafValues>
        1.5144883096218109e-01 -1.0659186542034149e-01</leafValues></_>
    <_>
      <internalNodes>
        0 -1 31245 8.4840580821037292e-03</internalNodes>
      <leafValues>
        -2.6993913576006889e-02 5.1894968748092651e-01</leafValues></_>
    <_>
      <internalNodes>
        0 -1 43761 3.8972578477114439e-04</internalNodes>
      <leafValues>
        9.3020670115947723e-02 -1.5764999389648438e-01</leafValues></_>
    <_>
      <internalNodes>
        0 -1 22071 -2.9356442391872406e-03</internalNodes>
      <leafValues>
        1.7750585079193115e-01 -8.1222385168075562e-02</leafValues></_>
    <_>
      <internalNodes>
        0 -1 21701 1.4345897361636162e-02</internalNodes>
      <leafValues>
        4.1900411248207092e-02 -4.2868369817733765e-01</leafValues></_>
    <_>
      <internalNodes>
        0 -1 39166 -8.3326779305934906e-02</internalNodes>
      <leafValues>
        2.2923365235328674e-01 -6.6018685698509216e-02</leafValues></_>
    <_>
      <internalNodes>
        0 -1 26043 1.9217219203710556e-02</internalNodes>
      <leafValues>
        1.2567639350891113e-01 -1.4920718967914581e-01</leafValues></_>
    <_>
      <internalNodes>
        0 -1 41114 4.9910572124645114e-04</internalNodes>
      <leafValues>
        1.0586295276880264e-01 -1.5781301259994507e-01</leafValues></_>
    <_>
      <internalNodes>
        0 -1 41051 8.9438427239656448e-03</internalNodes>
      <leafValues>
        -9.4172768294811249e-02 1.5921983122825623e-01</leafValues></_>
    <_>
      <internalNodes>
        0 -1 23432 -5.1541708409786224e-02</internalNodes>
      <leafValues>
        -8.9921808242797852e-01 2.1098908036947250e-02</leafValues></_>
    <_>
      <internalNodes>
        0 -1 35525 -8.5498038679361343e-03</internalNodes>
      <leafValues>
        2.4304120242595673e-01 -6.2131814658641815e-02</leafValues></_>
    <_>
      <internalNodes>
        0 -1 33342 3.5690204240381718e-03</internalNodes>
      <leafValues>
        -4.5990888029336929e-02 2.7209720015525818e-01</leafValues></_>
    <_>
      <internalNodes>
        0 -1 49558 9.9459663033485413e-04</internalNodes>
      <leafValues>
        8.7130166590213776e-02 -1.6267277300357819e-01</leafValues></_>
    <_>
      <internalNodes>
        0 -1 40541 -1.0995077172992751e-04</internalNodes>
      <leafValues>
        1.2895727157592773e-01 -1.1023304611444473e-01</leafValues></_>
    <_>
      <internalNodes>
        0 -1 49546 -5.8259656652808189e-03</internalNodes>
      <leafValues>
        1.9159671664237976e-01 -7.1606814861297607e-02</leafValues></_>
    <_>
      <internalNodes>
        0 -1 26211 -2.0857320632785559e-03</internalNodes>
      <leafValues>
        1.7896454036235809e-01 -7.7771730720996857e-02</leafValues></_>
    <_>
      <internalNodes>
        0 -1 29813 1.2757435441017151e-02</internalNodes>
      <leafValues>
        9.1742537915706635e-02 -1.9598199427127838e-01</leafValues></_>
    <_>
      <internalNodes>
        0 -1 639 1.9604461267590523e-03</internalNodes>
      <leafValues>
        1.0214528441429138e-01 -1.3909564912319183e-01</leafValues></_>
    <_>
      <internalNodes>
        0 -1 2824 -4.0224246680736542e-02</internalNodes>
      <leafValues>
        1.5562060475349426e-01 -9.3232631683349609e-02</leafValues></_>
    <_>
      <internalNodes>
        0 -1 10844 1.2738627381622791e-02</internalNodes>
      <leafValues>
        -6.4492404460906982e-02 2.3175828158855438e-01</leafValues></_>
    <_>
      <internalNodes>
        0 -1 6700 3.1783364713191986e-02</internalNodes>
      <leafValues>
        -7.0838965475559235e-02 2.0494619011878967e-01</leafValues></_>
    <_>
      <internalNodes>
        0 -1 51168 3.0036177486181259e-04</internalNodes>
      <leafValues>
        8.1916041672229767e-02 -1.5865813195705414e-01</leafValues></_>
    <_>
      <internalNodes>
        0 -1 34772 5.7337318139616400e-05</internalNodes>
      <leafValues>
        -1.1826080083847046e-01 1.1716119199991226e-01</leafValues></_>
    <_>
      <internalNodes>
        0 -1 34580 2.5284636649303138e-05</internalNodes>
      <leafValues>
        -1.1893170326948166e-01 1.4452472329139709e-01</leafValues></_>
    <_>
      <internalNodes>
        0 -1 27181 9.8254922777414322e-03</internalNodes>
      <leafValues>
        4.0477734059095383e-02 -3.4311404824256897e-01</leafValues></_>
    <_>
      <internalNodes>
        0 -1 37588 -4.4572688639163971e-03</internalNodes>
      <leafValues>
        2.7187296748161316e-01 -5.0475880503654480e-02</leafValues></_>
    <_>
      <internalNodes>
        0 -1 34383 -1.1941087723243982e-04</internalNodes>
      <leafValues>
        1.2031790614128113e-01 -1.1990219354629517e-01</leafValues></_>
    <_>
      <internalNodes>
        0 -1 43048 -4.8907166346907616e-03</internalNodes>
      <leafValues>
        -3.6483317613601685e-01 3.7187770009040833e-02</leafValues></_>
    <_>
      <internalNodes>
        0 -1 34376 -1.3036020100116730e-03</internalNodes>
      <leafValues>
        2.4271477758884430e-01 -6.7804038524627686e-02</leafValues></_>
    <_>
      <internalNodes>
        0 -1 34183 -2.5624864065321162e-05</internalNodes>
      <leafValues>
        1.4034554362297058e-01 -1.2001701444387436e-01</leafValues></_>
    <_>
      <internalNodes>
        0 -1 24649 2.0125985145568848e-02</internalNodes>
      <leafValues>
        -3.8613285869359970e-02 3.5479417443275452e-01</leafValues></_>
    <_>
      <internalNodes>
        0 -1 28533 4.2283246293663979e-03</internalNodes>
      <leafValues>
        6.2166955322027206e-02 -4.2070364952087402e-01</leafValues></_>
    <_>
      <internalNodes>
        0 -1 42576 -3.2313964329659939e-03</internalNodes>
      <leafValues>
        2.2217184305191040e-01 -6.1795726418495178e-02</leafValues></_>
    <_>
      <internalNodes>
        0 -1 33936 2.8607177227968350e-05</internalNodes>
      <leafValues>
        -1.2916955351829529e-01 1.1228135973215103e-01</leafValues></_>
    <_>
      <internalNodes>
        0 -1 42080 -2.3085892200469971e-02</internalNodes>
      <leafValues>
        2.1153050661087036e-01 -6.1235707253217697e-02</leafValues></_>
    <_>
      <internalNodes>
        0 -1 30853 1.7436682246625423e-03</internalNodes>
      <leafValues>
        9.8880715668201447e-02 -1.3568764925003052e-01</leafValues></_>
    <_>
      <internalNodes>
        0 -1 11379 -4.6182004734873772e-03</internalNodes>
      <leafValues>
        1.4525309205055237e-01 -9.2637941241264343e-02</leafValues></_>
    <_>
      <internalNodes>
        0 -1 37330 1.4713068958371878e-04</internalNodes>
      <leafValues>
        -1.1927914619445801e-01 1.0514468699693680e-01</leafValues></_>
    <_>
      <internalNodes>
        0 -1 34336 -2.0110923796892166e-02</internalNodes>
      <leafValues>
        2.6189315319061279e-01 -5.4912421852350235e-02</leafValues></_>
    <_>
      <internalNodes>
        0 -1 37377 -7.0255454629659653e-03</internalNodes>
      <leafValues>
        -2.1030122041702271e-01 7.4476093053817749e-02</leafValues></_>
    <_>
      <internalNodes>
        0 -1 34264 2.1892245858907700e-02</internalNodes>
      <leafValues>
        3.7406481802463531e-02 -4.5774126052856445e-01</leafValues></_>
    <_>
      <internalNodes>
        0 -1 30716 -4.4067515991628170e-03</internalNodes>
      <leafValues>
        1.4417266845703125e-01 -1.0836331546306610e-01</leafValues></_>
    <_>
      <internalNodes>
        0 -1 31242 7.0984230842441320e-04</internalNodes>
      <leafValues>
        -9.1683022677898407e-02 1.6345272958278656e-01</leafValues></_>
    <_>
      <internalNodes>
        0 -1 7700 -4.3962174095213413e-04</internalNodes>
      <leafValues>
        -1.3625684380531311e-01 1.1886297911405563e-01</leafValues></_>
    <_>
      <internalNodes>
        0 -1 5447 5.0867289304733276e-02</internalNodes>
      <leafValues>
        -2.9636442661285400e-02 5.5992335081100464e-01</leafValues></_>
    <_>
      <internalNodes>
        0 -1 41034 1.1501219123601913e-02</internalNodes>
      <leafValues>
        3.0559917911887169e-02 -5.7228386402130127e-01</leafValues></_>
    <_>
      <internalNodes>
        0 -1 40844 -9.2562419013120234e-05</internalNodes>
      <leafValues>
        1.2926486134529114e-01 -1.1593449860811234e-01</leafValues></_>
    <_>
      <internalNodes>
        0 -1 38203 -9.0108171571046114e-04</internalNodes>
      <leafValues>
        2.3048146069049835e-01 -7.2126552462577820e-02</leafValues></_>
    <_>
      <internalNodes>
        0 -1 14842 -5.3010918200016022e-02</internalNodes>
      <leafValues>
        2.9518944025039673e-01 -4.6645611524581909e-02</leafValues></_>
    <_>
      <internalNodes>
        0 -1 45382 7.7601447701454163e-03</internalNodes>
      <leafValues>
        -8.9563392102718353e-02 1.7631161212921143e-01</leafValues></_>
    <_>
      <internalNodes>
        0 -1 37100 -2.1446025930345058e-03</internalNodes>
      <leafValues>
        -2.0821858942508698e-01 7.2980023920536041e-02</leafValues></_>
    <_>
      <internalNodes>
        0 -1 31388 -1.1518957093358040e-02</internalNodes>
      <leafValues>
        1.5817794203758240e-01 -9.4649069011211395e-02</leafValues></_>
    <_>
      <internalNodes>
        0 -1 35038 -1.9819238223135471e-03</internalNodes>
      <leafValues>
        1.4683610200881958e-01 -1.2079890072345734e-01</leafValues></_>
    <_>
      <internalNodes>
        0 -1 28296 -2.4468045681715012e-02</internalNodes>
      <leafValues>
        -4.6848535537719727e-01 3.6723200231790543e-02</leafValues></_>
    <_>
      <internalNodes>
        0 -1 42130 4.2890561744570732e-03</internalNodes>
      <leafValues>
        -5.8228239417076111e-02 2.6742640137672424e-01</leafValues></_>
    <_>
      <internalNodes>
        0 -1 2097 3.4972935914993286e-02</internalNodes>
      <leafValues>
        6.8115532398223877e-02 -2.3954306542873383e-01</leafValues></_>
    <_>
      <internalNodes>
        0 -1 5756 -1.0060808062553406e-01</internalNodes>
      <leafValues>
        8.0099636316299438e-01 -2.3987080901861191e-02</leafValues></_>
    <_>
      <internalNodes>
        0 -1 19242 -1.4972280710935593e-02</internalNodes>
      <leafValues>
        -4.7422626614570618e-01 3.4739259630441666e-02</leafValues></_>
    <_>
      <internalNodes>
        0 -1 24177 -2.7080301661044359e-03</internalNodes>
      <leafValues>
        3.6314073204994202e-01 -3.9535291492938995e-02</leafValues></_>
    <_>
      <internalNodes>
        0 -1 28937 -3.2335972785949707e-01</internalNodes>
      <leafValues>
        8.2099461555480957e-01 -1.5493562445044518e-02</leafValues></_>
    <_>
      <internalNodes>
        0 -1 24020 7.1497075259685516e-03</internalNodes>
      <leafValues>
        -4.2112134397029877e-02 2.9991459846496582e-01</leafValues></_>
    <_>
      <internalNodes>
        0 -1 19256 5.1783893257379532e-02</internalNodes>
      <leafValues>
        2.4624662473797798e-02 -6.0987764596939087e-01</leafValues></_>
    <_>
      <internalNodes>
        0 -1 47685 -1.0834850836545229e-03</internalNodes>
      <leafValues>
        -1.8287675082683563e-01 7.8301340341567993e-02</leafValues></_>
    <_>
      <internalNodes>
        0 -1 28515 -1.4694731682538986e-02</internalNodes>
      <leafValues>
        3.1068447232246399e-01 -4.8436336219310760e-02</leafValues></_>
    <_>
      <internalNodes>
        0 -1 27647 -6.3714792486280203e-04</internalNodes>
      <leafValues>
        1.4507029950618744e-01 -1.0051346570253372e-01</leafValues></_>
    <_>
      <internalNodes>
        0 -1 5521 7.4027187656611204e-04</internalNodes>
      <leafValues>
        8.3746038377285004e-02 -1.6254293918609619e-01</leafValues></_>
    <_>
      <internalNodes>
        0 -1 45779 -2.3360228165984154e-02</internalNodes>
      <leafValues>
        -6.7443817853927612e-01 2.0906578749418259e-02</leafValues></_>
    <_>
      <internalNodes>
        0 -1 46697 -1.1840093135833740e-01</internalNodes>
      <leafValues>
        -4.8228466510772705e-01 2.5313613936305046e-02</leafValues></_>
    <_>
      <internalNodes>
        0 -1 30806 -1.1384150385856628e-01</internalNodes>
      <leafValues>
        7.3647952079772949e-01 -2.0318698137998581e-02</leafValues></_>
    <_>
      <internalNodes>
        0 -1 19007 3.0234072357416153e-02</internalNodes>
      <leafValues>
        2.2218860685825348e-02 -7.6304405927658081e-01</leafValues></_>
    <_>
      <internalNodes>
        0 -1 5074 -1.2952229008078575e-02</internalNodes>
      <leafValues>
        1.6751801967620850e-01 -8.3095602691173553e-02</leafValues></_>
    <_>
      <internalNodes>
        0 -1 45787 4.8956158570945263e-04</internalNodes>
      <leafValues>
        8.9580588042736053e-02 -1.5109780430793762e-01</leafValues></_>
    <_>
      <internalNodes>
        0 -1 32304 1.0328174568712711e-02</internalNodes>
      <leafValues>
        -6.5729297697544098e-02 2.0229426026344299e-01</leafValues></_>
    <_>
      <internalNodes>
        0 -1 38433 -2.5320737622678280e-03</internalNodes>
      <leafValues>
        -3.7008079886436462e-01 3.9304316043853760e-02</leafValues></_>
    <_>
      <internalNodes>
        0 -1 10042 -2.0911679603159428e-03</internalNodes>
      <leafValues>
        -1.3125400245189667e-01 1.0969197750091553e-01</leafValues></_>
    <_>
      <internalNodes>
        0 -1 22423 -6.1130230315029621e-03</internalNodes>
      <leafValues>
        2.9497796297073364e-01 -4.3792981654405594e-02</leafValues></_>
    <_>
      <internalNodes>
        0 -1 47690 -1.9586108624935150e-02</internalNodes>
      <leafValues>
        8.7176442146301270e-01 -1.3655755668878555e-02</leafValues></_>
    <_>
      <internalNodes>
        0 -1 37710 2.6253792457282543e-03</internalNodes>
      <leafValues>
        -3.7378426641225815e-02 2.9801043868064880e-01</leafValues></_>
    <_>
      <internalNodes>
        0 -1 22581 1.8906521797180176e-01</internalNodes>
      <leafValues>
        4.3825685977935791e-02 -2.9590630531311035e-01</leafValues></_>
    <_>
      <internalNodes>
        0 -1 36606 -1.5018156729638577e-02</internalNodes>
      <leafValues>
        -2.0799346268177032e-01 7.6707646250724792e-02</leafValues></_>
    <_>
      <internalNodes>
        0 -1 33955 -3.2808398827910423e-03</internalNodes>
      <leafValues>
        -1.5218405425548553e-01 1.0149962455034256e-01</leafValues></_>
    <_>
      <internalNodes>
        0 -1 39337 -2.9347514733672142e-02</internalNodes>
      <leafValues>
        2.1415841579437256e-01 -6.6544510424137115e-02</leafValues></_>
    <_>
      <internalNodes>
        0 -1 31684 -4.5101448893547058e-02</internalNodes>
      <leafValues>
        -3.1500637531280518e-01 4.5393720269203186e-02</leafValues></_>
    <_>
      <internalNodes>
        0 -1 27839 7.2688949294388294e-03</internalNodes>
      <leafValues>
        -8.4803521633148193e-02 1.6894823312759399e-01</leafValues></_>
    <_>
      <internalNodes>
        0 -1 39039 1.4154117088764906e-03</internalNodes>
      <leafValues>
        -1.0615484416484833e-01 1.4156383275985718e-01</leafValues></_>
    <_>
      <internalNodes>
        0 -1 50682 -1.2108113616704941e-02</internalNodes>
      <leafValues>
        4.9037355184555054e-01 -3.1983431428670883e-02</leafValues></_></weakClassifiers></stage23>
</opencv_storage>
