<?xml version="1.0"?>
<opencv_storage>
<stage21>
  <maxWeakCount>100</maxWeakCount>
  <stageThreshold>-5.0800889730453491e-01</stageThreshold>
  <weakClassifiers>
    <_>
      <internalNodes>
        0 -1 2501 -4.8852020502090454e-01</internalNodes>
      <leafValues>
        6.6853934526443481e-01 2.8242319822311401e-01</leafValues></_>
    <_>
      <internalNodes>
        0 -1 20575 -2.8747737407684326e-01</internalNodes>
      <leafValues>
        7.9283285140991211e-01 -2.5014735292643309e-03</leafValues></_>
    <_>
      <internalNodes>
        0 -1 16208 5.9879493713378906e-01</internalNodes>
      <leafValues>
        -3.5115435719490051e-02 6.5458387136459351e-01</leafValues></_>
    <_>
      <internalNodes>
        0 -1 20697 2.1718159317970276e-02</internalNodes>
      <leafValues>
        -8.8494509458541870e-02 1.8667362630367279e-01</leafValues></_>
    <_>
      <internalNodes>
        0 -1 16208 5.9641289710998535e-01</internalNodes>
      <leafValues>
        1.4549410901963711e-02 -1.</leafValues></_>
    <_>
      <internalNodes>
        0 -1 16223 6.0454607009887695e-01</internalNodes>
      <leafValues>
        -2.9253492131829262e-02 7.8168958425521851e-01</leafValues></_>
    <_>
      <internalNodes>
        0 -1 44463 -8.2355011254549026e-03</internalNodes>
      <leafValues>
        2.6940119266510010e-01 -6.8697430193424225e-02</leafValues></_>
    <_>
      <internalNodes>
        0 -1 5026 -6.5479986369609833e-04</internalNodes>
      <leafValues>
        -1.8077988922595978e-01 8.1738173961639404e-02</leafValues></_>
    <_>
      <internalNodes>
        0 -1 5026 5.3437554743140936e-04</internalNodes>
      <leafValues>
        5.8562554419040680e-02 -1.9986732304096222e-01</leafValues></_>
    <_>
      <internalNodes>
        0 -1 25065 -2.8803937137126923e-02</internalNodes>
      <leafValues>
        1.7070513963699341e-01 -8.8246174156665802e-02</leafValues></_>
    <_>
      <internalNodes>
        0 -1 1691 1.4337250590324402e-01</internalNodes>
      <leafValues>
        2.2393230348825455e-02 -7.4594014883041382e-01</leafValues></_>
    <_>
      <internalNodes>
        0 -1 41134 1.0437634773552418e-03</internalNodes>
      <leafValues>
        7.9870335757732391e-02 -1.6060610115528107e-01</leafValues></_>
    <_>
      <internalNodes>
        0 -1 41950 -1.2663045898079872e-02</internalNodes>
      <leafValues>
        1.8375580012798309e-01 -8.1489935517311096e-02</leafValues></_>
    <_>
      <internalNodes>
        0 -1 2693 8.7362853810191154e-03</internalNodes>
      <leafValues>
        -7.7598132193088531e-02 1.8688304722309113e-01</leafValues></_>
    <_>
      <internalNodes>
        0 -1 37372 -7.6101080048829317e-04</internalNodes>
      <leafValues>
        -1.7010104656219482e-01 9.1242320835590363e-02</leafValues></_>
    <_>
      <internalNodes>
        0 -1 23374 1.6404662281274796e-02</internalNodes>
      <leafValues>
        -4.5355629175901413e-02 2.8350239992141724e-01</leafValues></_>
    <_>
      <internalNodes>
        0 -1 19483 -6.0235708951950073e-03</internalNodes>
      <leafValues>
        2.1457129716873169e-01 -7.4547722935676575e-02</leafValues></_>
    <_>
      <internalNodes>
        0 -1 16365 -5.6220376864075661e-03</internalNodes>
      <leafValues>
        1.2184019386768341e-01 -1.1034940928220749e-01</leafValues></_>
    <_>
      <internalNodes>
        0 -1 2315 -4.8973843455314636e-02</internalNodes>
      <leafValues>
        2.8009411692619324e-01 -5.5935643613338470e-02</leafValues></_>
    <_>
      <internalNodes>
        0 -1 41169 3.3696137368679047e-02</internalNodes>
      <leafValues>
        -5.5385570973157883e-02 2.3579673469066620e-01</leafValues></_>
    <_>
      <internalNodes>
        0 -1 10222 1.3249384239315987e-02</internalNodes>
      <leafValues>
        -1.8016355112195015e-02 6.6376179456710815e-01</leafValues></_>
    <_>
      <internalNodes>
        0 -1 37100 -2.2250548936426640e-03</internalNodes>
      <leafValues>
        -2.0987205207347870e-01 6.7554891109466553e-02</leafValues></_>
    <_>
      <internalNodes>
        0 -1 36677 2.1283796057105064e-02</internalNodes>
      <leafValues>
        -5.5517721921205521e-02 2.6569640636444092e-01</leafValues></_>
    <_>
      <internalNodes>
        0 -1 19844 -4.7447448596358299e-03</internalNodes>
      <leafValues>
        4.1591674089431763e-01 -3.1826842576265335e-02</leafValues></_>
    <_>
      <internalNodes>
        0 -1 33799 2.2388698533177376e-02</internalNodes>
      <leafValues>
        2.7651330456137657e-02 -5.3232079744338989e-01</leafValues></_>
    <_>
      <internalNodes>
        0 -1 47709 7.4107688851654530e-04</internalNodes>
      <leafValues>
        7.9422749578952789e-02 -1.5751625597476959e-01</leafValues></_>
    <_>
      <internalNodes>
        0 -1 27651 -1.0772657115012407e-03</internalNodes>
      <leafValues>
        -1.5544052422046661e-01 8.7037257850170135e-02</leafValues></_>
    <_>
      <internalNodes>
        0 -1 31217 6.9117266684770584e-03</internalNodes>
      <leafValues>
        5.7583130896091461e-02 -2.6773500442504883e-01</leafValues></_>
    <_>
      <internalNodes>
        0 -1 19216 5.4830820299685001e-03</internalNodes>
      <leafValues>
        -4.4071055948734283e-02 3.0908992886543274e-01</leafValues></_>
    <_>
      <internalNodes>
        0 -1 24657 7.6766116544604301e-03</internalNodes>
      <leafValues>
        5.9418734163045883e-02 -2.2362700104713440e-01</leafValues></_>
    <_>
      <internalNodes>
        0 -1 42888 -7.9999030276667327e-05</internalNodes>
      <leafValues>
        1.1494619399309158e-01 -1.1860439926385880e-01</leafValues></_>
    <_>
      <internalNodes>
        0 -1 3025 -1.2753234803676605e-01</internalNodes>
      <leafValues>
        -3.7349241971969604e-01 3.9195973426103592e-02</leafValues></_>
    <_>
      <internalNodes>
        0 -1 46854 1.7195388209074736e-03</internalNodes>
      <leafValues>
        5.8065354824066162e-02 -2.3706600069999695e-01</leafValues></_>
    <_>
      <internalNodes>
        0 -1 40186 4.5317271724343300e-04</internalNodes>
      <leafValues>
        -1.1648918688297272e-01 1.3543502986431122e-01</leafValues></_>
    <_>
      <internalNodes>
        0 -1 38471 -4.5298617333173752e-03</internalNodes>
      <leafValues>
        1.4660426974296570e-01 -9.8066844046115875e-02</leafValues></_>
    <_>
      <internalNodes>
        0 -1 11212 -1.7476454377174377e-02</internalNodes>
      <leafValues>
        3.3416035771369934e-01 -3.9966031908988953e-02</leafValues></_>
    <_>
      <internalNodes>
        0 -1 50631 -1.0192771442234516e-03</internalNodes>
      <leafValues>
        -1.9328053295612335e-01 8.2638271152973175e-02</leafValues></_>
    <_>
      <internalNodes>
        0 -1 34730 7.4251205660402775e-04</internalNodes>
      <leafValues>
        1.0032776743173599e-01 -1.3250181078910828e-01</leafValues></_>
    <_>
      <internalNodes>
        0 -1 34081 -3.7697352468967438e-02</internalNodes>
      <leafValues>
        4.6246203780174255e-01 -2.9064368456602097e-02</leafValues></_>
    <_>
      <internalNodes>
        0 -1 34803 -1.1037424206733704e-02</internalNodes>
      <leafValues>
        -4.0928480029106140e-01 3.4953191876411438e-02</leafValues></_>
    <_>
      <internalNodes>
        0 -1 27619 -5.4411735618487000e-04</internalNodes>
      <leafValues>
        1.4426867663860321e-01 -9.5775537192821503e-02</leafValues></_>
    <_>
      <internalNodes>
        0 -1 31431 4.5659704483114183e-04</internalNodes>
      <leafValues>
        -9.2190675437450409e-02 1.5000304579734802e-01</leafValues></_>
    <_>
      <internalNodes>
        0 -1 4359 9.1076167300343513e-03</internalNodes>
      <leafValues>
        5.5234652012586594e-02 -3.4519901871681213e-01</leafValues></_>
    <_>
      <internalNodes>
        0 -1 3180 -1.3620299287140369e-02</internalNodes>
      <leafValues>
        -2.7414152026176453e-01 5.0450488924980164e-02</leafValues></_>
    <_>
      <internalNodes>
        0 -1 50703 -1.4997489750385284e-02</internalNodes>
      <leafValues>
        4.8533308506011963e-01 -2.9058715328574181e-02</leafValues></_>
    <_>
      <internalNodes>
        0 -1 38344 4.2170551605522633e-03</internalNodes>
      <leafValues>
        4.8468563705682755e-02 -2.8108525276184082e-01</leafValues></_>
    <_>
      <internalNodes>
        0 -1 36527 1.7362749204039574e-03</internalNodes>
      <leafValues>
        -4.9300678074359894e-02 2.6097244024276733e-01</leafValues></_>
    <_>
      <internalNodes>
        0 -1 15518 4.0306703886017203e-04</internalNodes>
      <leafValues>
        9.6941672265529633e-02 -1.3185948133468628e-01</leafValues></_>
    <_>
      <internalNodes>
        0 -1 39419 -1.3323307037353516e-01</internalNodes>
      <leafValues>
        -5.0956702232360840e-01 2.7734696865081787e-02</leafValues></_>
    <_>
      <internalNodes>
        0 -1 37109 1.2224746868014336e-02</internalNodes>
      <leafValues>
        5.2648406475782394e-02 -2.4113962054252625e-01</leafValues></_>
    <_>
      <internalNodes>
        0 -1 46874 -9.4509730115532875e-04</internalNodes>
      <leafValues>
        1.3044904172420502e-01 -1.0171964019536972e-01</leafValues></_>
    <_>
      <internalNodes>
        0 -1 36487 -1.0444530844688416e-01</internalNodes>
      <leafValues>
        -7.0627534389495850e-01 1.9292492419481277e-02</leafValues></_>
    <_>
      <internalNodes>
        0 -1 36339 -3.4827914088964462e-02</internalNodes>
      <leafValues>
        4.3252742290496826e-01 -4.1916608810424805e-02</leafValues></_>
    <_>
      <internalNodes>
        0 -1 3762 -1.1520138010382652e-02</internalNodes>
      <leafValues>
        1.6466912627220154e-01 -8.0061450600624084e-02</leafValues></_>
    <_>
      <internalNodes>
        0 -1 23586 -2.7574104024097323e-04</internalNodes>
      <leafValues>
        1.4240148663520813e-01 -1.0690039396286011e-01</leafValues></_>
    <_>
      <internalNodes>
        0 -1 37894 6.6751264967024326e-05</internalNodes>
      <leafValues>
        -1.1288075894117355e-01 1.2611852586269379e-01</leafValues></_>
    <_>
      <internalNodes>
        0 -1 46405 5.7070213370025158e-03</internalNodes>
      <leafValues>
        -5.6279640644788742e-02 2.3321832716464996e-01</leafValues></_>
    <_>
      <internalNodes>
        0 -1 37317 8.7993834167718887e-03</internalNodes>
      <leafValues>
        3.8022480905056000e-02 -3.3937826752662659e-01</leafValues></_>
    <_>
      <internalNodes>
        0 -1 33432 8.8722169399261475e-02</internalNodes>
      <leafValues>
        -1.9978806376457214e-02 6.7143249511718750e-01</leafValues></_>
    <_>
      <internalNodes>
        0 -1 23066 -3.3261962234973907e-03</internalNodes>
      <leafValues>
        -1.8053233623504639e-01 7.4226468801498413e-02</leafValues></_>
    <_>
      <internalNodes>
        0 -1 49891 -4.2344816029071808e-03</internalNodes>
      <leafValues>
        1.7254368960857391e-01 -8.2832664251327515e-02</leafValues></_>
    <_>
      <internalNodes>
        0 -1 50948 3.9690602570772171e-03</internalNodes>
      <leafValues>
        7.3992587625980377e-02 -2.2295835614204407e-01</leafValues></_>
    <_>
      <internalNodes>
        0 -1 10514 -1.3154473900794983e-01</internalNodes>
      <leafValues>
        -5.7316631078720093e-01 2.0625457167625427e-02</leafValues></_>
    <_>
      <internalNodes>
        0 -1 38975 -1.7874538898468018e-03</internalNodes>
      <leafValues>
        -2.1980302035808563e-01 5.4586321115493774e-02</leafValues></_>
    <_>
      <internalNodes>
        0 -1 32841 -9.8698846995830536e-03</internalNodes>
      <leafValues>
        1.3826994597911835e-01 -8.8983036577701569e-02</leafValues></_>
    <_>
      <internalNodes>
        0 -1 37055 2.6914201953331940e-05</internalNodes>
      <leafValues>
        -1.1106401681900024e-01 1.2518003582954407e-01</leafValues></_>
    <_>
      <internalNodes>
        0 -1 37057 -2.8614691473194398e-05</internalNodes>
      <leafValues>
        1.2891839444637299e-01 -1.1145401000976563e-01</leafValues></_>
    <_>
      <internalNodes>
        0 -1 48777 -8.3262603729963303e-03</internalNodes>
      <leafValues>
        3.5432133078575134e-01 -3.3807825297117233e-02</leafValues></_>
    <_>
      <internalNodes>
        0 -1 12586 2.6762820780277252e-02</internalNodes>
      <leafValues>
        2.4568341672420502e-02 -5.5533325672149658e-01</leafValues></_>
    <_>
      <internalNodes>
        0 -1 39365 5.3628548979759216e-02</internalNodes>
      <leafValues>
        3.9376128464937210e-02 -2.9031279683113098e-01</leafValues></_>
    <_>
      <internalNodes>
        0 -1 6071 6.9170624017715454e-02</internalNodes>
      <leafValues>
        -7.4771463871002197e-02 2.0062729716300964e-01</leafValues></_>
    <_>
      <internalNodes>
        0 -1 16701 -2.2047434002161026e-02</internalNodes>
      <leafValues>
        3.1127747893333435e-01 -4.5320171862840652e-02</leafValues></_>
    <_>
      <internalNodes>
        0 -1 42713 4.8574853281024843e-05</internalNodes>
      <leafValues>
        -1.1321908235549927e-01 1.1684811115264893e-01</leafValues></_>
    <_>
      <internalNodes>
        0 -1 21265 -3.3046607859432697e-04</internalNodes>
      <leafValues>
        -1.4229694008827209e-01 9.3094229698181152e-02</leafValues></_>
    <_>
      <internalNodes>
        0 -1 30246 -3.5918697714805603e-01</internalNodes>
      <leafValues>
        -7.4127107858657837e-01 1.4194239862263203e-02</leafValues></_>
    <_>
      <internalNodes>
        0 -1 20717 -1.8358030915260315e-01</internalNodes>
      <leafValues>
        -2.9331779479980469e-01 4.2781632393598557e-02</leafValues></_>
    <_>
      <internalNodes>
        0 -1 42528 9.7208917140960693e-03</internalNodes>
      <leafValues>
        1.0805279016494751e-01 -1.3970120251178741e-01</leafValues></_>
    <_>
      <internalNodes>
        0 -1 40035 -1.2523327022790909e-03</internalNodes>
      <leafValues>
        1.2972514331340790e-01 -1.1454658955335617e-01</leafValues></_>
    <_>
      <internalNodes>
        0 -1 15104 -1.7817047238349915e-01</internalNodes>
      <leafValues>
        7.1212023496627808e-01 -1.9823847338557243e-02</leafValues></_>
    <_>
      <internalNodes>
        0 -1 23585 -2.4945698678493500e-03</internalNodes>
      <leafValues>
        -2.3805701732635498e-01 6.4054921269416809e-02</leafValues></_>
    <_>
      <internalNodes>
        0 -1 35267 9.4455694779753685e-03</internalNodes>
      <leafValues>
        -8.7557658553123474e-02 1.6505514085292816e-01</leafValues></_>
    <_>
      <internalNodes>
        0 -1 35349 1.1983102886006236e-03</internalNodes>
      <leafValues>
        -9.0900376439094543e-02 1.5822222828865051e-01</leafValues></_>
    <_>
      <internalNodes>
        0 -1 17374 -2.7259020134806633e-03</internalNodes>
      <leafValues>
        1.2763160467147827e-01 -1.1223550140857697e-01</leafValues></_>
    <_>
      <internalNodes>
        0 -1 19539 -3.4970823675394058e-02</internalNodes>
      <leafValues>
        2.6060026884078979e-01 -5.2772570401430130e-02</leafValues></_>
    <_>
      <internalNodes>
        0 -1 10486 -4.4323317706584930e-03</internalNodes>
      <leafValues>
        1.6799297928810120e-01 -7.9081483185291290e-02</leafValues></_>
    <_>
      <internalNodes>
        0 -1 30158 -6.9318879395723343e-03</internalNodes>
      <leafValues>
        -2.7906754612922668e-01 4.8324748873710632e-02</leafValues></_>
    <_>
      <internalNodes>
        0 -1 13621 -4.3804002925753593e-03</internalNodes>
      <leafValues>
        2.1378833055496216e-01 -5.5243484675884247e-02</leafValues></_>
    <_>
      <internalNodes>
        0 -1 21383 -1.1590782552957535e-02</internalNodes>
      <leafValues>
        2.1127831935882568e-01 -6.0970429331064224e-02</leafValues></_>
    <_>
      <internalNodes>
        0 -1 8538 -4.3536676093935966e-03</internalNodes>
      <leafValues>
        -2.7194431424140930e-01 4.5827712863683701e-02</leafValues></_>
    <_>
      <internalNodes>
        0 -1 2837 -1.8445865134708583e-04</internalNodes>
      <leafValues>
        1.1386671662330627e-01 -1.2546099722385406e-01</leafValues></_>
    <_>
      <internalNodes>
        0 -1 16360 -1.6034433618187904e-02</internalNodes>
      <leafValues>
        1.6452266275882721e-01 -8.3521045744419098e-02</leafValues></_>
    <_>
      <internalNodes>
        0 -1 12409 -2.0667314529418945e-02</internalNodes>
      <leafValues>
        -2.1664088964462280e-01 6.5138928592205048e-02</leafValues></_>
    <_>
      <internalNodes>
        0 -1 4506 6.0142658650875092e-02</internalNodes>
      <leafValues>
        -7.2722971439361572e-02 1.9097761809825897e-01</leafValues></_>
    <_>
      <internalNodes>
        0 -1 50231 1.5162574127316475e-03</internalNodes>
      <leafValues>
        7.4102535843849182e-02 -1.7901249229907990e-01</leafValues></_>
    <_>
      <internalNodes>
        0 -1 24031 7.2932417970150709e-04</internalNodes>
      <leafValues>
        -9.6930563449859619e-02 1.4071173965930939e-01</leafValues></_>
    <_>
      <internalNodes>
        0 -1 32097 -2.3232400417327881e-02</internalNodes>
      <leafValues>
        -2.9870289564132690e-01 4.7710809856653214e-02</leafValues></_>
    <_>
      <internalNodes>
        0 -1 24514 2.5907633826136589e-03</internalNodes>
      <leafValues>
        -9.5144517719745636e-02 1.5395571291446686e-01</leafValues></_>
    <_>
      <internalNodes>
        0 -1 38516 2.7302745729684830e-03</internalNodes>
      <leafValues>
        -5.9309750795364380e-02 2.0730316638946533e-01</leafValues></_>
    <_>
      <internalNodes>
        0 -1 41065 2.6945078745484352e-02</internalNodes>
      <leafValues>
        5.4112523794174194e-02 -2.3710525035858154e-01</leafValues></_>
    <_>
      <internalNodes>
        0 -1 48231 3.1511052511632442e-03</internalNodes>
      <leafValues>
        -3.8515586405992508e-02 3.4058731794357300e-01</leafValues></_></weakClassifiers></stage21>
</opencv_storage>
